solver_type L2R_L2LOSS_SVC_DUAL
nr_class 6
label 1 2 3 4 5 6
nr_feature 1713
bias -1
w
0 0 0 0 0 0 
0 0 0 0 0 0 
0 0 0 0 0 0 
0 0 0 0 0 0 
0 0 0 0 0 0 
0 0 0 0 0 0 
0 0 0 0 0 0 
0 0 0 0 0 0 
0.1422042961760269 -0.1956888384150186 -0.0001214940602058599 0.05881460366531709 0.01678272417146845 0.06467879878427935 
0 0 0 0 0 0 
0 0 0 0 0 0 
0 0 0 0 0 0 
0 0 0 0 0 0 
0 0 0 0 0 0 
0 0 0 0 0 0 
0 0 0 0 0 0 
0 0 0 0 0 0 
0.02004754614950666 -0.06948529032413503 0.1173715500690823 -0.04010417536062674 0.06759867894747587 -0.04950240901078905 
0 0 0 0 0 0 
0 0 0 0 0 0 
0 0 0 0 0 0 
0 0 0 0 0 0 
0 0 0 0 0 0 
0 0 0 0 0 0 
0 0 0 0 0 0 
0 0 0 0 0 0 
-0.1422115344168216 0.2138269424037864 0.1457682947356765 0.08365893264141765 -0.02891052989988745 -0.06493344932707457 
0 0 0 0 0 0 
0 0 0 0 0 0 
0 0 0 0 0 0 
0 0 0 0 0 0 
0 0 0 0 0 0 
0 0 0 0 0 0 
0 0 0 0 0 0 
0 0 0 0 0 0 
-0.2059312518251996 0.2328139139207207 0.03540067998408557 0.04396025908155103 -0.05526108130434643 0.02659350482328479 
0 0 0 0 0 0 
0 0 0 0 0 0 
0 0 0 0 0 0 
0 0 0 0 0 0 
0 0 0 0 0 0 
0 0 0 0 0 0 
0 0 0 0 0 0 
0 0 0 0 0 0 
0.18201428807314 0.06326740233036951 -0.01222288678072658 0.1240337940940745 -0.05866568017399271 -0.03657679859629195 
0 0 0 0 0 0 
0 0 0 0 0 0 
0 0 0 0 0 0 
0 0 0 0 0 0 
0 0 0 0 0 0 
0 0 0 0 0 0 
0 0 0 0 0 0 
0 0 0 0 0 0 
0.1526551229887275 -0.1781812963082274 0.008312731114225078 0.07449752029179911 -0.00584640268802257 0.01479767371043298 
0 0 0 0 0 0 
0 0 0 0 0 0 
0 0 0 0 0 0 
0 0 0 0 0 0 
0 0 0 0 0 0 
0 0 0 0 0 0 
0 0 0 0 0 0 
0 0 0 0 0 0 
0.0678168406070548 -0.1327302398039955 -0.02845831338164666 0.009197826281514679 0.03766155651145882 0.0257325231738572 
0 0 0 0 0 0 
0 0 0 0 0 0 
0 0 0 0 0 0 
0 0 0 0 0 0 
0 0 0 0 0 0 
0 0 0 0 0 0 
0 0 0 0 0 0 
0 0 0 0 0 0 
0.04065654659215476 0.05286565979632393 -0.1224470335633205 -0.06494844381896521 -0.02455775076358328 0.09608720995412687 
0 0 0 0 0 0 
0 0 0 0 0 0 
0 0 0 0 0 0 
0 0 0 0 0 0 
0 0 0 0 0 0 
0 0 0 0 0 0 
0 0 0 0 0 0 
0 0 0 0 0 0 
0.1307223433213129 -0.03284631477972646 0.009630770139976947 0.1015668922788891 -0.02627178695010829 -0.1410757533504453 
0 0 0 0 0 0 
0 0 0 0 0 0 
0 0 0 0 0 0 
0 0 0 0 0 0 
0 0 0 0 0 0 
0 0 0 0 0 0 
0 0 0 0 0 0 
0 0 0 0 0 0 
-0.04094963907237559 -0.03135962638383485 -0.1212665399231426 0.1409670992184511 0.006205399856042726 0.07159820520120816 
0 0 0 0 0 0 
0 0 0 0 0 0 
0 0 0 0 0 0 
0 0 0 0 0 0 
0 0 0 0 0 0 
0 0 0 0 0 0 
0 0 0 0 0 0 
0 0 0 0 0 0 
0.044391628629151 -0.03658109528681942 0.02204872506315763 0.06520239046297548 -0.03771508484854458 -0.0041577503370993 
0 0 0 0 0 0 
0 0 0 0 0 0 
0 0 0 0 0 0 
0 0 0 0 0 0 
0 0 0 0 0 0 
0 0 0 0 0 0 
0 0 0 0 0 0 
0 0 0 0 0 0 
-0.1052865897060132 0.1746392377528812 0.1431557367121005 -0.0006365467589211969 0.003950548429906751 -0.114561502132471 
0 0 0 0 0 0 
0 0 0 0 0 0 
0 0 0 0 0 0 
0 0 0 0 0 0 
0 0 0 0 0 0 
0 0 0 0 0 0 
0 0 0 0 0 0 
0 0 0 0 0 0 
8.020213901012592e-06 -0.07166070117996035 0.02351011176340997 -0.02077140182870424 0.05541017204048365 -0.0007204711139651317 
0 0 0 0 0 0 
0 0 0 0 0 0 
0 0 0 0 0 0 
0 0 0 0 0 0 
0 0 0 0 0 0 
0 0 0 0 0 0 
0 0 0 0 0 0 
0 0 0 0 0 0 
-0.0283736646839759 0.1676484852974113 0.1240250411980336 0.1112609463489465 -0.09215853608456147 -0.05173199242317682 
0 0 0 0 0 0 
0 0 0 0 0 0 
0 0 0 0 0 0 
0 0 0 0 0 0 
0 0 0 0 0 0 
0 0 0 0 0 0 
0 0 0 0 0 0 
0 0 0 0 0 0 
0.03929776446026075 -0.0819243960459127 0.1125119879243172 -0.06650920876861489 -0.0343553771948964 0.001512862335334376 
0 0 0 0 0 0 
0 0 0 0 0 0 
0 0 0 0 0 0 
0 0 0 0 0 0 
0 0 0 0 0 0 
0 0 0 0 0 0 
0 0 0 0 0 0 
0 0 0 0 0 0 
-0.4027632051281068 0.1331491035996226 0.07528767803126367 0.08584281381833232 -0.1157816646746386 0.1358978970196736 
0 0 0 0 0 0 
0 0 0 0 0 0 
0 0 0 0 0 0 
0 0 0 0 0 0 
0 0 0 0 0 0 
0 0 0 0 0 0 
0 0 0 0 0 0 
0 0 0 0 0 0 
0.1870830602637721 -0.1058257923945606 0.1020706987138228 0.05672531067026667 -0.1920492520389422 0.09669669761173461 
0 0 0 0 0 0 
0 0 0 0 0 0 
0 0 0 0 0 0 
0 0 0 0 0 0 
0 0 0 0 0 0 
0 0 0 0 0 0 
0 0 0 0 0 0 
0 0 0 0 0 0 
0.05915317252154509 -0.002232466032526439 -0.01493171156148276 0.05592109676459252 -0.02984183411193917 0.02963902384216222 
0 0 0 0 0 0 
0 0 0 0 0 0 
0 0 0 0 0 0 
0 0 0 0 0 0 
0 0 0 0 0 0 
0 0 0 0 0 0 
0 0 0 0 0 0 
0 0 0 0 0 0 
0.05042124059315767 -0.02517524697599576 -0.001065554930454809 -0.004016030577640267 0.05742861936632128 0.05312401297461519 
0 0 0 0 0 0 
0 0 0 0 0 0 
0 0 0 0 0 0 
0 0 0 0 0 0 
0 0 0 0 0 0 
0 0 0 0 0 0 
0 0 0 0 0 0 
0 0 0 0 0 0 
-0.04849450648276847 -0.02168162244306065 -0.1373027761462366 -0.1156099067667663 0.1377366359764605 0.1428607272225316 
0 0 0 0 0 0 
0 0 0 0 0 0 
0 0 0 0 0 0 
0 0 0 0 0 0 
0 0 0 0 0 0 
0 0 0 0 0 0 
0 0 0 0 0 0 
0 0 0 0 0 0 
-0.07370447618313945 -0.02907895788261948 -0.1534503334085214 -0.02447494349413723 0.1878583226731962 0.1721677027945799 
0 0 0 0 0 0 
0 0 0 0 0 0 
0 0 0 0 0 0 
0 0 0 0 0 0 
0 0 0 0 0 0 
0 0 0 0 0 0 
0 0 0 0 0 0 
0 0 0 0 0 0 
-0.01397067075406821 0.004948290385841952 -0.1831196845813809 0.02179818093163256 0.0796706696140734 0.08241305720253822 
0 0 0 0 0 0 
0 0 0 0 0 0 
0 0 0 0 0 0 
0 0 0 0 0 0 
0 0 0 0 0 0 
0 0 0 0 0 0 
0 0 0 0 0 0 
0 0 0 0 0 0 
0.02146187535626182 -0.01693366136909087 -0.1295418796412364 0.1977184775759264 -0.01269550011280556 0.06187997891457661 
0 0 0 0 0 0 
0 0 0 0 0 0 
0 0 0 0 0 0 
0 0 0 0 0 0 
0 0 0 0 0 0 
0 0 0 0 0 0 
0 0 0 0 0 0 
0 0 0 0 0 0 
-0.1426711860887717 -0.02908619424124123 -0.01504168201123143 0.1172672998164644 0.01011254564766798 0.04697997085447389 
0 0 0 0 0 0 
0 0 0 0 0 0 
0 0 0 0 0 0 
0 0 0 0 0 0 
0 0 0 0 0 0 
0 0 0 0 0 0 
0 0 0 0 0 0 
0 0 0 0 0 0 
0.03269179400922076 -0.04025780275970724 -0.03656766947441073 0.1599880494413823 -0.09777329322459426 0.1116111460141636 
0 0 0 0 0 0 
0 0 0 0 0 0 
0 0 0 0 0 0 
0 0 0 0 0 0 
0 0 0 0 0 0 
0 0 0 0 0 0 
0 0 0 0 0 0 
0 0 0 0 0 0 
0.03260567851261024 0.105526290963782 0.1478596066468877 -0.1613717009486523 -0.0914861810653743 0.02553364654844923 
0 0 0 0 0 0 
0 0 0 0 0 0 
0 0 0 0 0 0 
0 0 0 0 0 0 
0 0 0 0 0 0 
0 0 0 0 0 0 
0 0 0 0 0 0 
0 0 0 0 0 0 
-0.2042139641156637 0.07345676754291572 0.1440898193286085 0.03666815346388144 0.006811098571745369 -0.002491969901956719 
0 0 0 0 0 0 
0 0 0 0 0 0 
0 0 0 0 0 0 
0 0 0 0 0 0 
0 0 0 0 0 0 
0 0 0 0 0 0 
0 0 0 0 0 0 
0 0 0 0 0 0 
-0.07653811145957402 -0.0199090609025016 0.1159823549623807 -0.2105343710910064 -0.03428067011831946 0.09344657625805469 
0 0 0 0 0 0 
0 0 0 0 0 0 
0 0 0 0 0 0 
0 0 0 0 0 0 
0 0 0 0 0 0 
0 0 0 0 0 0 
0 0 0 0 0 0 
0 0 0 0 0 0 
-0.2104238893849845 0.0174949131965552 0.1160182384062634 0.0007180885445125359 0.004359495179293798 0.1400751626944614 
0 0 0 0 0 0 
0 0 0 0 0 0 
0 0 0 0 0 0 
0 0 0 0 0 0 
0 0 0 0 0 0 
0 0 0 0 0 0 
0 0 0 0 0 0 
0 0 0 0 0 0 
-0.171511353508087 -0.1196248187047418 0.01902933591295723 0.05529362526408638 -0.1166947685241105 0.1486375823879818 
0 0 0 0 0 0 
0 0 0 0 0 0 
0 0 0 0 0 0 
0 0 0 0 0 0 
0 0 0 0 0 0 
0 0 0 0 0 0 
0 0 0 0 0 0 
0 0 0 0 0 0 
-0.1245266823202434 0.000337704164144653 -0.03471904806253569 0.008117207810012191 -0.01626837018254791 0.2028579805602306 
0 0 0 0 0 0 
0 0 0 0 0 0 
0 0 0 0 0 0 
0 0 0 0 0 0 
0 0 0 0 0 0 
0 0 0 0 0 0 
0 0 0 0 0 0 
0 0 0 0 0 0 
-0.0572634434646305 0.03553876571950945 0.01081184738685841 -0.05727276108270143 0.1891841336663779 0.08703002247210398 
0 0 0 0 0 0 
0 0 0 0 0 0 
0 0 0 0 0 0 
0 0 0 0 0 0 
0 0 0 0 0 0 
0 0 0 0 0 0 
0 0 0 0 0 0 
0 0 0 0 0 0 
0.1474889916882978 -0.06146043641562294 -0.1090288494170272 -0.1425282464304272 0.1644283781031816 0.07429227880592434 
0 0 0 0 0 0 
0 0 0 0 0 0 
0 0 0 0 0 0 
0 0 0 0 0 0 
0 0 0 0 0 0 
0 0 0 0 0 0 
0 0 0 0 0 0 
0 0 0 0 0 0 
0.09188014368180873 -0.02156602849847289 -0.1698507485676817 -0.1457483519018011 0.1310934198697492 0.07811526745899403 
0 0 0 0 0 0 
0 0 0 0 0 0 
0 0 0 0 0 0 
0 0 0 0 0 0 
0 0 0 0 0 0 
0 0 0 0 0 0 
0 0 0 0 0 0 
0 0 0 0 0 0 
-0.00697539535874125 -0.02356202826769735 -0.03588069034726175 0.04929297885572436 0.1484798509797918 0.05349016678051917 
0 0 0 0 0 0 
0 0 0 0 0 0 
0 0 0 0 0 0 
0 0 0 0 0 0 
0 0 0 0 0 0 
0 0 0 0 0 0 
0 0 0 0 0 0 
0 0 0 0 0 0 
0.04333142447327815 -0.037218356436364 -0.005270421247218728 0.03095764450904492 0.05541254181135752 0.0895979512952752 
0 0 0 0 0 0 
0 0 0 0 0 0 
0 0 0 0 0 0 
0 0 0 0 0 0 
0 0 0 0 0 0 
0 0 0 0 0 0 
0 0 0 0 0 0 
0 0 0 0 0 0 
-0.07222356423244583 0.01096545792267326 -0.03160806697964602 0.01652224348684712 0.1013771979589356 0.1113239624126675 
0 0 0 0 0 0 
0 0 0 0 0 0 
0 0 0 0 0 0 
0 0 0 0 0 0 
0 0 0 0 0 0 
0 0 0 0 0 0 
0 0 0 0 0 0 
0 0 0 0 0 0 
-0.1656582503045141 -0.02409380349826691 0.08310220181796303 -0.01875808598607514 0.01350345584044062 0.09344204976956988 
0 0 0 0 0 0 
0 0 0 0 0 0 
0 0 0 0 0 0 
0 0 0 0 0 0 
0 0 0 0 0 0 
0 0 0 0 0 0 
0 0 0 0 0 0 
0 0 0 0 0 0 
-0.3214995053661673 -0.01425356678192208 0.2450949681230664 -0.2025050257233715 0.0876806046613607 0.196008745346362 
0 0 0 0 0 0 
0 0 0 0 0 0 
0 0 0 0 0 0 
0 0 0 0 0 0 
0 0 0 0 0 0 
0 0 0 0 0 0 
0 0 0 0 0 0 
0 0 0 0 0 0 
-0.05642517746928259 0.0649300701527713 0.1328291044052501 -0.0120005329673656 -0.01397696756851033 -0.02714600512289597 
0 0 0 0 0 0 
0 0 0 0 0 0 
0 0 0 0 0 0 
0 0 0 0 0 0 
0 0 0 0 0 0 
0 0 0 0 0 0 
0 0 0 0 0 0 
0 0 0 0 0 0 
-0.05876537659329975 -0.1155646313928326 0.08948589071440835 0.09371894067228988 0.07980399913654436 0.1644442844780001 
0 0 0 0 0 0 
0 0 0 0 0 0 
0 0 0 0 0 0 
0 0 0 0 0 0 
0 0 0 0 0 0 
0 0 0 0 0 0 
0 0 0 0 0 0 
0 0 0 0 0 0 
-0.05520236745372117 -0.02022367108421263 0.1223530538587284 -0.04783651389893896 -0.0429092923917567 0.05589192211990107 
0 0 0 0 0 0 
0 0 0 0 0 0 
0 0 0 0 0 0 
0 0 0 0 0 0 
0 0 0 0 0 0 
0 0 0 0 0 0 
0 0 0 0 0 0 
0 0 0 0 0 0 
0.00782867033566024 -0.009878714085319183 0.03379373354774631 -0.09481747827482544 0.02770418721560151 -0.01534845741238037 
0 0 0 0 0 0 
0 0 0 0 0 0 
0 0 0 0 0 0 
0 0 0 0 0 0 
0 0 0 0 0 0 
0 0 0 0 0 0 
0 0 0 0 0 0 
0 0 0 0 0 0 
0.04595079866623264 -0.05122640962188247 -0.0190144843325764 -0.1139440878934494 0.08554175672875658 0.01852423206850139 
0 0 0 0 0 0 
0 0 0 0 0 0 
0 0 0 0 0 0 
0 0 0 0 0 0 
0 0 0 0 0 0 
0 0 0 0 0 0 
0 0 0 0 0 0 
0 0 0 0 0 0 
0.00760050829357261 -0.09553234356629611 -0.05509839987891239 -0.1021541943718439 0.1427463669195951 -0.01114082143731267 
0 0 0 0 0 0 
0 0 0 0 0 0 
0 0 0 0 0 0 
0 0 0 0 0 0 
0 0 0 0 0 0 
0 0 0 0 0 0 
0 0 0 0 0 0 
0 0 0 0 0 0 
0.06307272274067539 -0.05069203528681896 -0.08132257557440263 0.004698247461310556 0.09856684456257864 -0.02192804726837832 
0 0 0 0 0 0 
0 0 0 0 0 0 
0 0 0 0 0 0 
0 0 0 0 0 0 
0 0 0 0 0 0 
0 0 0 0 0 0 
0 0 0 0 0 0 
0 0 0 0 0 0 
0.1169556969773331 -0.002158632635063088 -0.134382519961159 0.03712178184294934 0.06168331393733228 0.0004919878183745033 
0 0 0 0 0 0 
0 0 0 0 0 0 
0 0 0 0 0 0 
0 0 0 0 0 0 
0 0 0 0 0 0 
0 0 0 0 0 0 
0 0 0 0 0 0 
0 0 0 0 0 0 
0.1670605390169408 -0.1529324571710428 -0.05188891222185253 -0.04365067662808372 0.09106274742665646 0.03109180904535797 
0 0 0 0 0 0 
0 0 0 0 0 0 
0 0 0 0 0 0 
0 0 0 0 0 0 
0 0 0 0 0 0 
0 0 0 0 0 0 
0 0 0 0 0 0 
0 0 0 0 0 0 
0.1194876697871196 -0.02732610888700472 -0.01762274754926175 -0.1432706002100285 0.04899502914679567 0.006333150190195631 
0 0 0 0 0 0 
0 0 0 0 0 0 
0 0 0 0 0 0 
0 0 0 0 0 0 
0 0 0 0 0 0 
0 0 0 0 0 0 
0 0 0 0 0 0 
0 0 0 0 0 0 
-0.03022563475975086 0.03134351533106298 -0.0818162788348102 -0.1057371480958452 0.09596847966187219 0.006333150190195614 
0 0 0 0 0 0 
0 0 0 0 0 0 
0 0 0 0 0 0 
0 0 0 0 0 0 
0 0 0 0 0 0 
0 0 0 0 0 0 
0 0 0 0 0 0 
0 0 0 0 0 0 
-0.02336967900315289 -0.05706148376235323 -0.03819924069486413 0.0115963560092482 -0.008417206837015558 0.09012284389623396 
0 0 0 0 0 0 
0 0 0 0 0 0 
0 0 0 0 0 0 
0 0 0 0 0 0 
0 0 0 0 0 0 
0 0 0 0 0 0 
0 0 0 0 0 0 
0 0 0 0 0 0 
0.05897879286984703 -0.03899064219231136 0.01235313155476292 -0.07535655656972985 0.05514178323099987 0.02012631120385782 
0 0 0 0 0 0 
0 0 0 0 0 0 
0 0 0 0 0 0 
0 0 0 0 0 0 
0 0 0 0 0 0 
0 0 0 0 0 0 
0 0 0 0 0 0 
0 0 0 0 0 0 
0.0490572815723626 0.1060776590415352 0.002417813252359051 -0.03859005325027143 -0.02705246412594857 0.02383642650182416 
0 0 0 0 0 0 
0 0 0 0 0 0 
0 0 0 0 0 0 
0 0 0 0 0 0 
0 0 0 0 0 0 
0 0 0 0 0 0 
0 0 0 0 0 0 
0 0 0 0 0 0 
-0.1243927869551698 0.05078510793592652 0.04106869294500087 -0.004713317066105902 0.1428814729836361 0.03229516932581322 
0 0 0 0 0 0 
0 0 0 0 0 0 
0 0 0 0 0 0 
0 0 0 0 0 0 
0 0 0 0 0 0 
0 0 0 0 0 0 
0 0 0 0 0 0 
0 0 0 0 0 0 
0.01126187908941399 0.06505293861512912 0.07168389672881174 -0.01621212295662085 -0.06552420994896842 -0.1158122249106681 
0 0 0 0 0 0 
0 0 0 0 0 0 
0 0 0 0 0 0 
0 0 0 0 0 0 
0 0 0 0 0 0 
0 0 0 0 0 0 
0 0 0 0 0 0 
0 0 0 0 0 0 
-0.01264517301195101 0.03750611386821825 -0.01787220874014974 -0.1931258437266046 -0.00798885940180904 -0.1217753093613167 
0 0 0 0 0 0 
0 0 0 0 0 0 
0 0 0 0 0 0 
0 0 0 0 0 0 
0 0 0 0 0 0 
0 0 0 0 0 0 
0 0 0 0 0 0 
0 0 0 0 0 0 
0.05613843557999278 0.05282310722940873 -0.07709027182929447 -0.2350531916913445 0.08392524199374449 0.01852423206850152 
0 0 0 0 0 0 
0 0 0 0 0 0 
0 0 0 0 0 0 
0 0 0 0 0 0 
0 0 0 0 0 0 
0 0 0 0 0 0 
0 0 0 0 0 0 
0 0 0 0 0 0 
0.008707640103108715 -0.093166605410132 -0.04857509440778504 0.1214471111423286 0.128864168882912 -0.03807234260932411 
0 0 0 0 0 0 
0 0 0 0 0 0 
0 0 0 0 0 0 
0 0 0 0 0 0 
0 0 0 0 0 0 
0 0 0 0 0 0 
0 0 0 0 0 0 
0 0 0 0 0 0 
-0.02273461457015465 -0.2387108952941557 -0.05951986148176332 0.2647221777625417 0.05528457105492382 -0.05447849331393685 
0 0 0 0 0 0 
0 0 0 0 0 0 
0 0 0 0 0 0 
0 0 0 0 0 0 
0 0 0 0 0 0 
0 0 0 0 0 0 
0 0 0 0 0 0 
0 0 0 0 0 0 
-0.1230882229868226 -0.1467518568345784 0.09205788271695629 0.156537365602447 0.07085406597235425 -0.02688491307549884 
0 0 0 0 0 0 
0 0 0 0 0 0 
0 0 0 0 0 0 
0 0 0 0 0 0 
0 0 0 0 0 0 
0 0 0 0 0 0 
0 0 0 0 0 0 
0 0 0 0 0 0 
-0.03462135594080704 -0.1645512599921001 0.1934174081472928 -0.05180191142628462 0.009052401278118955 -0.04229772654074386 
0 0 0 0 0 0 
0 0 0 0 0 0 
0 0 0 0 0 0 
0 0 0 0 0 0 
0 0 0 0 0 0 
0 0 0 0 0 0 
0 0 0 0 0 0 
0 0 0 0 0 0 
-0.00193887991361574 -0.03528152948492592 0.0809101988107884 -0.1759159978985672 0.01487839317987561 0.001047252942939456 
0 0 0 0 0 0 
0 0 0 0 0 0 
0 0 0 0 0 0 
0 0 0 0 0 0 
0 0 0 0 0 0 
0 0 0 0 0 0 
0 0 0 0 0 0 
0 0 0 0 0 0 
0.01368017253745587 0.01137380391976135 0.02074471362128334 -0.1667745204710426 0.02670698201444733 0.001047252942939441 
0 0 0 0 0 0 
0 0 0 0 0 0 
0 0 0 0 0 0 
0 0 0 0 0 0 
0 0 0 0 0 0 
0 0 0 0 0 0 
0 0 0 0 0 0 
0 0 0 0 0 0 
-0.0162611142721561 0.08941682669850987 -0.06690212471998255 0.04767768627110971 -0.0150499224120787 0.04441970194518603 
0 0 0 0 0 0 
0 0 0 0 0 0 
0 0 0 0 0 0 
0 0 0 0 0 0 
0 0 0 0 0 0 
0 0 0 0 0 0 
0 0 0 0 0 0 
0 0 0 0 0 0 
0.1145332442226719 0.1897144455457282 -0.003558690038671318 0.08362682241913118 0.07938141642276587 -0.1537896389736517 
0 0 0 0 0 0 
0 0 0 0 0 0 
0 0 0 0 0 0 
0 0 0 0 0 0 
0 0 0 0 0 0 
0 0 0 0 0 0 
0 0 0 0 0 0 
0 0 0 0 0 0 
-0.03100523824622934 0.03466168452552384 -0.03732755573643503 0.1016944612671766 0.05084897665750923 0.00215188243833643 
0 0 0 0 0 0 
0 0 0 0 0 0 
0 0 0 0 0 0 
0 0 0 0 0 0 
0 0 0 0 0 0 
0 0 0 0 0 0 
0 0 0 0 0 0 
0 0 0 0 0 0 
0.1411620961645337 0.1525956734575998 -0.07003991476436905 0.04258945999885442 0.1243969908957182 -0.1768228494649346 
0 0 0 0 0 0 
0 0 0 0 0 0 
0 0 0 0 0 0 
0 0 0 0 0 0 
0 0 0 0 0 0 
0 0 0 0 0 0 
0 0 0 0 0 0 
0 0 0 0 0 0 
0.04917429946350906 0.07361176141350265 0.01501559828963533 -0.006689363659325084 -0.03754285391293272 -0.1204216824782163 
0 0 0 0 0 0 
0 0 0 0 0 0 
0 0 0 0 0 0 
0 0 0 0 0 0 
0 0 0 0 0 0 
0 0 0 0 0 0 
0 0 0 0 0 0 
0 0 0 0 0 0 
0.1444788440483759 0.08760416478560695 -0.04285557238026913 -0.1431333745422515 -0.1378489426052113 -0.04504683093480195 
0 0 0 0 0 0 
0 0 0 0 0 0 
0 0 0 0 0 0 
0 0 0 0 0 0 
0 0 0 0 0 0 
0 0 0 0 0 0 
0 0 0 0 0 0 
0 0 0 0 0 0 
-0.06813020532326151 0.03207014948528696 -0.07709027182929444 -0.08819629142051495 0.04490238164133528 -0.003789501956713758 
0 0 0 0 0 0 
0 0 0 0 0 0 
0 0 0 0 0 0 
0 0 0 0 0 0 
0 0 0 0 0 0 
0 0 0 0 0 0 
0 0 0 0 0 0 
0 0 0 0 0 0 
-0.09107772630656553 -0.1536167418725079 0.005639301356464762 0.05260314264163941 0.06483652539383458 -0.06244693008341726 
0 0 0 0 0 0 
0 0 0 0 0 0 
0 0 0 0 0 0 
0 0 0 0 0 0 
0 0 0 0 0 0 
0 0 0 0 0 0 
0 0 0 0 0 0 
0 0 0 0 0 0 
-0.1591559016820159 0.01022137319561934 -0.1138536682709866 0.05056450561021453 -0.06355679169000061 -0.0624469300834172 
0 0 0 0 0 0 
0 0 0 0 0 0 
0 0 0 0 0 0 
0 0 0 0 0 0 
0 0 0 0 0 0 
0 0 0 0 0 0 
0 0 0 0 0 0 
0 0 0 0 0 0 
-0.1214120649243598 0.003512020378905406 -0.005600742458445597 0.02604098584717089 -0.0348546271349479 -0.06073255570815243 
0 0 0 0 0 0 
0 0 0 0 0 0 
0 0 0 0 0 0 
0 0 0 0 0 0 
0 0 0 0 0 0 
0 0 0 0 0 0 
0 0 0 0 0 0 
0 0 0 0 0 0 
-0.1879745191048782 -0.06817805599725565 0.05804468152252859 0.0145848376227497 -0.0305739862740773 -0.07135939014359738 
0 0 0 0 0 0 
0 0 0 0 0 0 
0 0 0 0 0 0 
0 0 0 0 0 0 
0 0 0 0 0 0 
0 0 0 0 0 0 
0 0 0 0 0 0 
0 0 0 0 0 0 
-0.02009159270013989 -0.01588710221377486 0.05751965896341134 -0.2826637842890783 0.01487839317987557 0.001047252942939332 
0 0 0 0 0 0 
0 0 0 0 0 0 
0 0 0 0 0 0 
0 0 0 0 0 0 
0 0 0 0 0 0 
0 0 0 0 0 0 
0 0 0 0 0 0 
0 0 0 0 0 0 
0.01623214936689538 -0.009379153824360307 -0.07158381125593051 -0.09800335643301354 0.0771035958178522 0.01087469656795864 
0 0 0 0 0 0 
0 0 0 0 0 0 
0 0 0 0 0 0 
0 0 0 0 0 0 
0 0 0 0 0 0 
0 0 0 0 0 0 
0 0 0 0 0 0 
0 0 0 0 0 0 
-0.03059332192764616 0.1190692512027465 -0.01540576249821664 -0.0423314944120983 0.006537829465649497 -0.02197825053014368 
0 0 0 0 0 0 
0 0 0 0 0 0 
0 0 0 0 0 0 
0 0 0 0 0 0 
0 0 0 0 0 0 
0 0 0 0 0 0 
0 0 0 0 0 0 
0 0 0 0 0 0 
-0.0132634628627468 0.129053540748458 -0.01666861820857324 0.03265743036173073 0.01338616881140994 0.03783445105460878 
0 0 0 0 0 0 
0 0 0 0 0 0 
0 0 0 0 0 0 
0 0 0 0 0 0 
0 0 0 0 0 0 
0 0 0 0 0 0 
0 0 0 0 0 0 
0 0 0 0 0 0 
0.07512975877868172 0.06394084619689605 -0.03839312764192485 0.1209435301838485 0.06502547943643645 -0.1003363726548161 
0 0 0 0 0 0 
0 0 0 0 0 0 
0 0 0 0 0 0 
0 0 0 0 0 0 
0 0 0 0 0 0 
0 0 0 0 0 0 
0 0 0 0 0 0 
0 0 0 0 0 0 
-0.04794399485716835 0.1270127907100607 -0.1021005383759586 0.06090494348881759 0.06246680882030431 0.1479380837046939 
0 0 0 0 0 0 
0 0 0 0 0 0 
0 0 0 0 0 0 
0 0 0 0 0 0 
0 0 0 0 0 0 
0 0 0 0 0 0 
0 0 0 0 0 0 
0 0 0 0 0 0 
0.0513845486482431 0.09455704102602111 -0.1301765058539162 0.0613260509235003 0.0006796234097305658 0.001661023063752624 
0 0 0 0 0 0 
0 0 0 0 0 0 
0 0 0 0 0 0 
0 0 0 0 0 0 
0 0 0 0 0 0 
0 0 0 0 0 0 
0 0 0 0 0 0 
0 0 0 0 0 0 
0.1609405474491947 0.1319678579697403 -0.0642999477299639 -0.1276499147408527 -0.115453891619945 -0.03978494819441208 
0 0 0 0 0 0 
0 0 0 0 0 0 
0 0 0 0 0 0 
0 0 0 0 0 0 
0 0 0 0 0 0 
0 0 0 0 0 0 
0 0 0 0 0 0 
0 0 0 0 0 0 
-0.1583258287610597 0.01361101135228387 -0.09468276975125402 0.06635188875737601 0.06820250226367594 -0.03256130281657675 
0 0 0 0 0 0 
0 0 0 0 0 0 
0 0 0 0 0 0 
0 0 0 0 0 0 
0 0 0 0 0 0 
0 0 0 0 0 0 
0 0 0 0 0 0 
0 0 0 0 0 0 
-0.1805171514760064 0.008094081737361727 -0.03281546489890992 0.05337192242815657 -0.06509463570268156 -0.06244693008341687 
0 0 0 0 0 0 
0 0 0 0 0 0 
0 0 0 0 0 0 
0 0 0 0 0 0 
0 0 0 0 0 0 
0 0 0 0 0 0 
0 0 0 0 0 0 
0 0 0 0 0 0 
-0.1601203606406984 -0.02311676036339863 0.01631090063141196 -0.09016917251914823 -0.08234216908262337 -0.076876851049097 
0 0 0 0 0 0 
0 0 0 0 0 0 
0 0 0 0 0 0 
0 0 0 0 0 0 
0 0 0 0 0 0 
0 0 0 0 0 0 
0 0 0 0 0 0 
0 0 0 0 0 0 
-0.182882915433429 -0.02883749759808595 0.09697212212048352 -0.1491755667012871 -0.1574661504037397 -0.106921407151516 
0 0 0 0 0 0 
0 0 0 0 0 0 
0 0 0 0 0 0 
0 0 0 0 0 0 
0 0 0 0 0 0 
0 0 0 0 0 0 
0 0 0 0 0 0 
0 0 0 0 0 0 
-0.3127514113429277 0.002824012514211174 0.1017550022836805 -0.07331191704160252 -0.08356032304110175 -0.09077711181057055 
0 0 0 0 0 0 
0 0 0 0 0 0 
0 0 0 0 0 0 
0 0 0 0 0 0 
0 0 0 0 0 0 
0 0 0 0 0 0 
0 0 0 0 0 0 
0 0 0 0 0 0 
-0.2664609725610312 0.004339616345665966 -0.005153638545204815 -0.09294766078792453 0.006487901341313395 -0.04780876633349146 
0 0 0 0 0 0 
0 0 0 0 0 0 
0 0 0 0 0 0 
0 0 0 0 0 0 
0 0 0 0 0 0 
0 0 0 0 0 0 
0 0 0 0 0 0 
0 0 0 0 0 0 
-0.123756024061297 0.09841118864655959 0.04005007428748179 -0.132235379340581 0.007637994974675053 0.02530461753363897 
0 0 0 0 0 0 
0 0 0 0 0 0 
0 0 0 0 0 0 
0 0 0 0 0 0 
0 0 0 0 0 0 
0 0 0 0 0 0 
0 0 0 0 0 0 
0 0 0 0 0 0 
0.08488381339913345 0.1045192620178564 -0.08285771305460193 -0.007178629921005209 0.01168816916543748 -0.03299596212236251 
0 0 0 0 0 0 
0 0 0 0 0 0 
0 0 0 0 0 0 
0 0 0 0 0 0 
0 0 0 0 0 0 
0 0 0 0 0 0 
0 0 0 0 0 0 
0 0 0 0 0 0 
0.06423411508821476 0.1039593155802021 -0.04799595167838132 0.0475012151325222 -0.03581384517193888 -0.067246040069917 
0 0 0 0 0 0 
0 0 0 0 0 0 
0 0 0 0 0 0 
0 0 0 0 0 0 
0 0 0 0 0 0 
0 0 0 0 0 0 
0 0 0 0 0 0 
0 0 0 0 0 0 
-0.2308886075698034 0.04968332666561612 -0.156597031977727 0.1362282497742249 0.08221315582691419 0.03144254220817225 
0 0 0 0 0 0 
0 0 0 0 0 0 
0 0 0 0 0 0 
0 0 0 0 0 0 
0 0 0 0 0 0 
0 0 0 0 0 0 
0 0 0 0 0 0 
0 0 0 0 0 0 
0.1479372164311889 0.1032202881520654 -0.04921379042508937 -0.02658890060437221 -0.05827100997247232 0.02147456841246018 
0 0 0 0 0 0 
0 0 0 0 0 0 
0 0 0 0 0 0 
0 0 0 0 0 0 
0 0 0 0 0 0 
0 0 0 0 0 0 
0 0 0 0 0 0 
0 0 0 0 0 0 
0.1110367191013397 0.1188636033632829 -0.2189968225888601 0.0741189953095462 0.0631698400744138 -0.04246944187259118 
0 0 0 0 0 0 
0 0 0 0 0 0 
0 0 0 0 0 0 
0 0 0 0 0 0 
0 0 0 0 0 0 
0 0 0 0 0 0 
0 0 0 0 0 0 
0 0 0 0 0 0 
0.06217081110325191 0.1157214585914697 -0.1485175656841462 0.1267803279645022 0.02011513235701853 0.005767510228295933 
0 0 0 0 0 0 
0 0 0 0 0 0 
0 0 0 0 0 0 
0 0 0 0 0 0 
0 0 0 0 0 0 
0 0 0 0 0 0 
0 0 0 0 0 0 
0 0 0 0 0 0 
-0.1407944841389451 0.02717534803882454 -0.02918801543367017 0.05397064811495561 0.04118628522210929 -0.02242884225828828 
0 0 0 0 0 0 
0 0 0 0 0 0 
0 0 0 0 0 0 
0 0 0 0 0 0 
0 0 0 0 0 0 
0 0 0 0 0 0 
0 0 0 0 0 0 
0 0 0 0 0 0 
-0.1601203606406985 -0.009568029582210435 0.06633893165952282 -0.06252658530473347 -0.08234216908262315 -0.06153836763133128 
0 0 0 0 0 0 
0 0 0 0 0 0 
0 0 0 0 0 0 
0 0 0 0 0 0 
0 0 0 0 0 0 
0 0 0 0 0 0 
0 0 0 0 0 0 
0 0 0 0 0 0 
-0.182882915433429 -0.05393172276634631 0.07586017289305744 -0.1198700331745085 -0.1574661504037397 -0.1069214071515159 
0 0 0 0 0 0 
0 0 0 0 0 0 
0 0 0 0 0 0 
0 0 0 0 0 0 
0 0 0 0 0 0 
0 0 0 0 0 0 
0 0 0 0 0 0 
0 0 0 0 0 0 
-0.182882915433429 -0.05393172276634631 0.07586017289305744 -0.1198700331745085 -0.1574661504037397 -0.1069214071515159 
0 0 0 0 0 0 
0 0 0 0 0 0 
0 0 0 0 0 0 
0 0 0 0 0 0 
0 0 0 0 0 0 
0 0 0 0 0 0 
0 0 0 0 0 0 
0 0 0 0 0 0 
-0.1828829154334292 -0.02671020613982827 0.05193953670879585 -0.02380458718247397 -0.1477230942548397 -0.09709396352649691 
0 0 0 0 0 0 
0 0 0 0 0 0 
0 0 0 0 0 0 
0 0 0 0 0 0 
0 0 0 0 0 0 
0 0 0 0 0 0 
0 0 0 0 0 0 
0 0 0 0 0 0 
-0.1043519981833535 0.0656975304164161 0.005255620317405869 0.0613329188983967 -0.1510432112881974 -0.04954248761365689 
0 0 0 0 0 0 
0 0 0 0 0 0 
0 0 0 0 0 0 
0 0 0 0 0 0 
0 0 0 0 0 0 
0 0 0 0 0 0 
0 0 0 0 0 0 
0 0 0 0 0 0 
-0.003981670652401085 0.07907504717466729 0.1336958972150301 -0.02800636342705372 -0.05504065877162075 -0.006865544075714406 
0 0 0 0 0 0 
0 0 0 0 0 0 
0 0 0 0 0 0 
0 0 0 0 0 0 
0 0 0 0 0 0 
0 0 0 0 0 0 
0 0 0 0 0 0 
0 0 0 0 0 0 
0.07710807118857296 0.1490111245862435 -0.01728150139375519 0.01218693508757044 0.01200384677768927 0.003895459995368079 
0 0 0 0 0 0 
0 0 0 0 0 0 
0 0 0 0 0 0 
0 0 0 0 0 0 
0 0 0 0 0 0 
0 0 0 0 0 0 
0 0 0 0 0 0 
0 0 0 0 0 0 
-0.02837096045875408 0.1039593155802023 -0.1280179535168654 0.08938974355263736 0.02861690427415395 -0.04530297501852068 
0 0 0 0 0 0 
0 0 0 0 0 0 
0 0 0 0 0 0 
0 0 0 0 0 0 
0 0 0 0 0 0 
0 0 0 0 0 0 
0 0 0 0 0 0 
0 0 0 0 0 0 
-0.1501516243358287 0.02049130607387471 -0.03735921237203113 -0.01564815566866725 -0.0516554440386383 0.0577732357927261 
0 0 0 0 0 0 
0 0 0 0 0 0 
0 0 0 0 0 0 
0 0 0 0 0 0 
0 0 0 0 0 0 
0 0 0 0 0 0 
0 0 0 0 0 0 
0 0 0 0 0 0 
0.0968709571171489 0.162509749316675 0.00596247392139164 -0.02422272113235103 -0.1833753070661279 0.01112592570735382 
0 0 0 0 0 0 
0 0 0 0 0 0 
0 0 0 0 0 0 
0 0 0 0 0 0 
0 0 0 0 0 0 
0 0 0 0 0 0 
0 0 0 0 0 0 
0 0 0 0 0 0 
0.01614697067945772 0.06900594481927549 -0.1060157061897136 0.02537549126980291 -0.03319920694511373 0.05993430756689246 
0 0 0 0 0 0 
0 0 0 0 0 0 
0 0 0 0 0 0 
0 0 0 0 0 0 
0 0 0 0 0 0 
0 0 0 0 0 0 
0 0 0 0 0 0 
0 0 0 0 0 0 
0.06348488544263224 0.07368443524426588 -0.09417337249964297 0.1117942860389666 -0.02906459198170083 -0.0435069473033408 
0 0 0 0 0 0 
0 0 0 0 0 0 
0 0 0 0 0 0 
0 0 0 0 0 0 
0 0 0 0 0 0 
0 0 0 0 0 0 
0 0 0 0 0 0 
0 0 0 0 0 0 
-0.1250992762885915 0.04817872447283945 -0.01019474819100127 0.02619628070231101 -0.005868049598641461 -0.02597635062341278 
0 0 0 0 0 0 
0 0 0 0 0 0 
0 0 0 0 0 0 
0 0 0 0 0 0 
0 0 0 0 0 0 
0 0 0 0 0 0 
0 0 0 0 0 0 
0 0 0 0 0 0 
-0.1478618310813222 -0.003060081192795946 0.01720661823744571 -0.03482358418658332 -0.1081925637573664 -0.07216520206677687 
0 0 0 0 0 0 
0 0 0 0 0 0 
0 0 0 0 0 0 
0 0 0 0 0 0 
0 0 0 0 0 0 
0 0 0 0 0 0 
0 0 0 0 0 0 
0 0 0 0 0 0 
-0.1828829154334291 -0.009568029582210386 0.07586017289305749 -0.0480648365487452 -0.1574661504037397 -0.09158292373374979 
0 0 0 0 0 0 
0 0 0 0 0 0 
0 0 0 0 0 0 
0 0 0 0 0 0 
0 0 0 0 0 0 
0 0 0 0 0 0 
0 0 0 0 0 0 
0 0 0 0 0 0 
-0.1828829154334291 -0.02427929826210901 0.03482583996641374 -0.02576154243117161 -0.157466150403739 -0.09709396352649671 
0 0 0 0 0 0 
0 0 0 0 0 0 
0 0 0 0 0 0 
0 0 0 0 0 0 
0 0 0 0 0 0 
0 0 0 0 0 0 
0 0 0 0 0 0 
0 0 0 0 0 0 
-0.1760449119268536 -0.02427929826210894 -0.006862526705713658 0.01515683878029304 -0.09011902234815514 -0.08266404256081669 
0 0 0 0 0 0 
0 0 0 0 0 0 
0 0 0 0 0 0 
0 0 0 0 0 0 
0 0 0 0 0 0 
0 0 0 0 0 0 
0 0 0 0 0 0 
0 0 0 0 0 0 
-0.0142290499880779 0.02632063767757675 0.01681713185176649 0.0003130540095017506 -0.2185487583669033 -0.06568678295460248 
0 0 0 0 0 0 
0 0 0 0 0 0 
0 0 0 0 0 0 
0 0 0 0 0 0 
0 0 0 0 0 0 
0 0 0 0 0 0 
0 0 0 0 0 0 
0 0 0 0 0 0 
0.05488553637461949 0.0912032411878414 -0.08005983594448148 0.1815245441348017 -0.09593723509811164 -0.03772329309759927 
0 0 0 0 0 0 
0 0 0 0 0 0 
0 0 0 0 0 0 
0 0 0 0 0 0 
0 0 0 0 0 0 
0 0 0 0 0 0 
0 0 0 0 0 0 
0 0 0 0 0 0 
0.1927786220733819 0.07907504717466729 0.02511780652108329 0.03114869194815281 -0.007042371098124487 -0.03922091652019093 
0 0 0 0 0 0 
0 0 0 0 0 0 
0 0 0 0 0 0 
0 0 0 0 0 0 
0 0 0 0 0 0 
0 0 0 0 0 0 
0 0 0 0 0 0 
0 0 0 0 0 0 
-0.03600586157777177 0.1420869651876339 -0.2323001186816264 -0.09987106449998338 -0.02154090154437188 0.04831006835737411 
0 0 0 0 0 0 
0 0 0 0 0 0 
0 0 0 0 0 0 
0 0 0 0 0 0 
0 0 0 0 0 0 
0 0 0 0 0 0 
0 0 0 0 0 0 
0 0 0 0 0 0 
-0.07270790912482834 0.1180301449517702 0.01922382614886873 -0.104391569662721 -0.01134062450596402 0.0238730925812219 
0 0 0 0 0 0 
0 0 0 0 0 0 
0 0 0 0 0 0 
0 0 0 0 0 0 
0 0 0 0 0 0 
0 0 0 0 0 0 
0 0 0 0 0 0 
0 0 0 0 0 0 
0.1430740548043202 0.03984112648107452 0.005063546945719882 -0.03423744429671198 -0.04868177621447867 -0.1171575117005801 
0 0 0 0 0 0 
0 0 0 0 0 0 
0 0 0 0 0 0 
0 0 0 0 0 0 
0 0 0 0 0 0 
0 0 0 0 0 0 
0 0 0 0 0 0 
0 0 0 0 0 0 
-0.1154786017075428 0.1317755874205191 -0.1133230898014322 0.1774263714202305 -0.003631471566941592 0.01618634869911778 
0 0 0 0 0 0 
0 0 0 0 0 0 
0 0 0 0 0 0 
0 0 0 0 0 0 
0 0 0 0 0 0 
0 0 0 0 0 0 
0 0 0 0 0 0 
0 0 0 0 0 0 
0.0549475146732208 0.04817872447283948 0.03108624394931726 0.0260476320421106 -0.1991684511302296 -0.04793010190738275 
0 0 0 0 0 0 
0 0 0 0 0 0 
0 0 0 0 0 0 
0 0 0 0 0 0 
0 0 0 0 0 0 
0 0 0 0 0 0 
0 0 0 0 0 0 
0 0 0 0 0 0 
-0.1200495594404787 0.03605053045966462 -0.1490408708934717 0.02619628070231099 0.01001501743085645 -0.05160918199578665 
0 0 0 0 0 0 
0 0 0 0 0 0 
0 0 0 0 0 0 
0 0 0 0 0 0 
0 0 0 0 0 0 
0 0 0 0 0 0 
0 0 0 0 0 0 
0 0 0 0 0 0 
-0.1478618310813223 0.03605053045966462 -0.08512356296633855 0.02619628070231102 -0.04259910669322402 -0.05602090672583142 
0 0 0 0 0 0 
0 0 0 0 0 0 
0 0 0 0 0 0 
0 0 0 0 0 0 
0 0 0 0 0 0 
0 0 0 0 0 0 
0 0 0 0 0 0 
0 0 0 0 0 0 
-0.1478618310813221 0.02659234331144121 -0.02382771468919732 0.05928490655675406 -0.1081925637573663 -0.06233775844175778 
0 0 0 0 0 0 
0 0 0 0 0 0 
0 0 0 0 0 0 
0 0 0 0 0 0 
0 0 0 0 0 0 
0 0 0 0 0 0 
0 0 0 0 0 0 
0 0 0 0 0 0 
-0.1760449119268532 0.02659234331144101 -0.006862526705713727 0.0851469810614892 -0.1057810489382828 -0.08175548010873071 
0 0 0 0 0 0 
0 0 0 0 0 0 
0 0 0 0 0 0 
0 0 0 0 0 0 
0 0 0 0 0 0 
0 0 0 0 0 0 
0 0 0 0 0 0 
0 0 0 0 0 0 
-0.1760449119268536 -0.02095285836968741 -0.006862526705713749 0.01515683878029309 0.007665384696612543 -0.08266404256081655 
0 0 0 0 0 0 
0 0 0 0 0 0 
0 0 0 0 0 0 
0 0 0 0 0 0 
0 0 0 0 0 0 
0 0 0 0 0 0 
0 0 0 0 0 0 
0 0 0 0 0 0 
-0.01040061011417155 -0.04326545005907272 -0.1051315396720164 0.08891484495009723 -0.1434247770457842 -0.02767379008270316 
0 0 0 0 0 0 
0 0 0 0 0 0 
0 0 0 0 0 0 
0 0 0 0 0 0 
0 0 0 0 0 0 
0 0 0 0 0 0 
0 0 0 0 0 0 
0 0 0 0 0 0 
0.008533504804653102 0.001226412509316551 -0.1117308590907641 0.04196384813446229 -0.06112071882562721 0.01540202643025416 
0 0 0 0 0 0 
0 0 0 0 0 0 
0 0 0 0 0 0 
0 0 0 0 0 0 
0 0 0 0 0 0 
0 0 0 0 0 0 
0 0 0 0 0 0 
0 0 0 0 0 0 
0.1290646613550465 0.1026291097518637 -0.05211377814390096 -0.05011670721703658 -0.01093199649529746 -0.02967221931261469 
0 0 0 0 0 0 
0 0 0 0 0 0 
0 0 0 0 0 0 
0 0 0 0 0 0 
0 0 0 0 0 0 
0 0 0 0 0 0 
0 0 0 0 0 0 
0 0 0 0 0 0 
-0.1414653627169219 0.06146088730550878 -0.108542614155926 -0.08061449964522444 -0.01257901231824981 -0.04504178353656815 
0 0 0 0 0 0 
0 0 0 0 0 0 
0 0 0 0 0 0 
0 0 0 0 0 0 
0 0 0 0 0 0 
0 0 0 0 0 0 
0 0 0 0 0 0 
0 0 0 0 0 0 
0.09045640601524889 0.1310994271967517 -0.07133297087673601 -0.0495612939178539 -0.08488524811145109 -0.09623206579006902 
0 0 0 0 0 0 
0 0 0 0 0 0 
0 0 0 0 0 0 
0 0 0 0 0 0 
0 0 0 0 0 0 
0 0 0 0 0 0 
0 0 0 0 0 0 
0 0 0 0 0 0 
-0.1138486304410328 -0.08167970407277214 0.02289189627403185 0.06801290376942666 -0.01261968976715361 0.1278749179555955 
0 0 0 0 0 0 
0 0 0 0 0 0 
0 0 0 0 0 0 
0 0 0 0 0 0 
0 0 0 0 0 0 
0 0 0 0 0 0 
0 0 0 0 0 0 
0 0 0 0 0 0 
0.0186143998771305 0.08825917812831868 0.06823844129415407 0.01343783437569446 0.006175078228027197 -0.1292090503143042 
0 0 0 0 0 0 
0 0 0 0 0 0 
0 0 0 0 0 0 
0 0 0 0 0 0 
0 0 0 0 0 0 
0 0 0 0 0 0 
0 0 0 0 0 0 
0 0 0 0 0 0 
0.1378070560118495 0.1015245926905945 0.0553858960926481 -0.08938286900129423 -0.1363901740795398 -0.1294170934747728 
0 0 0 0 0 0 
0 0 0 0 0 0 
0 0 0 0 0 0 
0 0 0 0 0 0 
0 0 0 0 0 0 
0 0 0 0 0 0 
0 0 0 0 0 0 
0 0 0 0 0 0 
-0.03728611652498565 0.03896911377408726 -0.08952862658271579 -0.05861355103741579 -0.001102424997603603 -0.06426906923533582 
0 0 0 0 0 0 
0 0 0 0 0 0 
0 0 0 0 0 0 
0 0 0 0 0 0 
0 0 0 0 0 0 
0 0 0 0 0 0 
0 0 0 0 0 0 
0 0 0 0 0 0 
-0.02042536357214128 -0.1119731909327081 0.0009295908162284398 0.1620026610028948 -0.0899685950140573 -0.02432335414270964 
0 0 0 0 0 0 
0 0 0 0 0 0 
0 0 0 0 0 0 
0 0 0 0 0 0 
0 0 0 0 0 0 
0 0 0 0 0 0 
0 0 0 0 0 0 
0 0 0 0 0 0 
-0.05764250726472014 -0.04112218227119906 -0.0920208267901455 0.1702587322129797 0.1002643497481066 -0.03176354213513176 
0 0 0 0 0 0 
0 0 0 0 0 0 
0 0 0 0 0 0 
0 0 0 0 0 0 
0 0 0 0 0 0 
0 0 0 0 0 0 
0 0 0 0 0 0 
0 0 0 0 0 0 
-0.06922380552567932 -0.05686038770555791 -0.01414458284488499 0.09029338914293179 0.07058207478353171 -0.04790783747607741 
0 0 0 0 0 0 
0 0 0 0 0 0 
0 0 0 0 0 0 
0 0 0 0 0 0 
0 0 0 0 0 0 
0 0 0 0 0 0 
0 0 0 0 0 0 
0 0 0 0 0 0 
0.08885717750398901 -0.1412149430846771 -0.1124568228511826 0.1726351507650723 -0.08029207047234652 -0.02931256627115101 
0 0 0 0 0 0 
0 0 0 0 0 0 
0 0 0 0 0 0 
0 0 0 0 0 0 
0 0 0 0 0 0 
0 0 0 0 0 0 
0 0 0 0 0 0 
0 0 0 0 0 0 
0.1343830521628738 -0.05443577217525557 -0.009451076634819588 -0.05409239252749053 -0.03242639177667907 -0.0007422689106917116 
0 0 0 0 0 0 
0 0 0 0 0 0 
0 0 0 0 0 0 
0 0 0 0 0 0 
0 0 0 0 0 0 
0 0 0 0 0 0 
0 0 0 0 0 0 
0 0 0 0 0 0 
-0.03324220324544377 0.08009123540146032 -0.1360400503151026 0.1268303726554889 -0.02126637874340161 0.01780771896530941 
0 0 0 0 0 0 
0 0 0 0 0 0 
0 0 0 0 0 0 
0 0 0 0 0 0 
0 0 0 0 0 0 
0 0 0 0 0 0 
0 0 0 0 0 0 
0 0 0 0 0 0 
0.08106129482557509 0.09573103301531408 0.01906093493086316 -0.0003062950996710743 -0.1059291295861503 -0.08006999102303666 
0 0 0 0 0 0 
0 0 0 0 0 0 
0 0 0 0 0 0 
0 0 0 0 0 0 
0 0 0 0 0 0 
0 0 0 0 0 0 
0 0 0 0 0 0 
0 0 0 0 0 0 
0.1227949840032008 -0.02678434597837115 0.1382411425607909 -0.2122852258994579 -0.003194563957047786 -0.1842846923134636 
0 0 0 0 0 0 
0 0 0 0 0 0 
0 0 0 0 0 0 
0 0 0 0 0 0 
0 0 0 0 0 0 
0 0 0 0 0 0 
0 0 0 0 0 0 
0 0 0 0 0 0 
0.05207809932252838 0.1027269484627463 0.06317018964956296 -0.07145946729744844 0.009847821108058831 -0.0508690402768705 
0 0 0 0 0 0 
0 0 0 0 0 0 
0 0 0 0 0 0 
0 0 0 0 0 0 
0 0 0 0 0 0 
0 0 0 0 0 0 
0 0 0 0 0 0 
0 0 0 0 0 0 
0.1333100276574495 -0.1095641062811114 -0.01238277871083672 0.0503688972442962 -0.09614977265359599 0.0940332882494383 
0 0 0 0 0 0 
0 0 0 0 0 0 
0 0 0 0 0 0 
0 0 0 0 0 0 
0 0 0 0 0 0 
0 0 0 0 0 0 
0 0 0 0 0 0 
0 0 0 0 0 0 
0.1621345658900033 -0.1448320972753725 0.07051483364354673 -0.03046245886416782 0.01474137172267859 -0.07860924348947099 
0 0 0 0 0 0 
0 0 0 0 0 0 
0 0 0 0 0 0 
0 0 0 0 0 0 
0 0 0 0 0 0 
0 0 0 0 0 0 
0 0 0 0 0 0 
0 0 0 0 0 0 
0.2153374769416301 -0.006938729569120188 0.09538453333172352 -0.06827201417836344 -0.1533394880966941 -0.05360991066946429 
0 0 0 0 0 0 
0 0 0 0 0 0 
0 0 0 0 0 0 
0 0 0 0 0 0 
0 0 0 0 0 0 
0 0 0 0 0 0 
0 0 0 0 0 0 
0 0 0 0 0 0 
0.06759023273485264 -0.1048799631681142 0.00695449747087096 -0.04385427047753723 0.01233339916557944 -0.07107562314988053 
0 0 0 0 0 0 
0 0 0 0 0 0 
0 0 0 0 0 0 
0 0 0 0 0 0 
0 0 0 0 0 0 
0 0 0 0 0 0 
0 0 0 0 0 0 
0 0 0 0 0 0 
0.04218461367737049 -0.1285551743830159 -0.02105774143293769 0.08916559915947177 0.00253343961753643 0.01902162534097359 
0 0 0 0 0 0 
0 0 0 0 0 0 
0 0 0 0 0 0 
0 0 0 0 0 0 
0 0 0 0 0 0 
0 0 0 0 0 0 
0 0 0 0 0 0 
0 0 0 0 0 0 
0.0005549116156538066 -0.04774250760380059 -0.00317990759802539 0.1737304421951047 0.1113876323774011 -0.03176354213513145 
0 0 0 0 0 0 
0 0 0 0 0 0 
0 0 0 0 0 0 
0 0 0 0 0 0 
0 0 0 0 0 0 
0 0 0 0 0 0 
0 0 0 0 0 0 
0 0 0 0 0 0 
0.02229016704324707 -0.0005694813580808605 -0.00101648382945046 0.1896012307280047 -0.02365157343937492 -0.02905698810604076 
0 0 0 0 0 0 
0 0 0 0 0 0 
0 0 0 0 0 0 
0 0 0 0 0 0 
0 0 0 0 0 0 
0 0 0 0 0 0 
0 0 0 0 0 0 
0 0 0 0 0 0 
0.08982163646267126 -0.1377239246200178 -0.09844148215826079 0.0429361589982384 -0.01572569966967189 -0.00238104509913952 
0 0 0 0 0 0 
0 0 0 0 0 0 
0 0 0 0 0 0 
0 0 0 0 0 0 
0 0 0 0 0 0 
0 0 0 0 0 0 
0 0 0 0 0 0 
0 0 0 0 0 0 
0.1400841798192667 -0.1255957306068413 -0.03062521722941156 0.04328619803666268 0.0566788114515029 0.02523778166232432 
0 0 0 0 0 0 
0 0 0 0 0 0 
0 0 0 0 0 0 
0 0 0 0 0 0 
0 0 0 0 0 0 
0 0 0 0 0 0 
0 0 0 0 0 0 
0 0 0 0 0 0 
0.1096599462655577 -0.01824431293633685 0.03470162154893741 -0.004492286681434089 -0.006913321164855295 0.01318775764950043 
0 0 0 0 0 0 
0 0 0 0 0 0 
0 0 0 0 0 0 
0 0 0 0 0 0 
0 0 0 0 0 0 
0 0 0 0 0 0 
0 0 0 0 0 0 
0 0 0 0 0 0 
0.05990531472209745 0.005582834007913796 0.05583308292166402 -0.03502573751625963 -0.1037952189573572 0.06955027698615163 
0 0 0 0 0 0 
0 0 0 0 0 0 
0 0 0 0 0 0 
0 0 0 0 0 0 
0 0 0 0 0 0 
0 0 0 0 0 0 
0 0 0 0 0 0 
0 0 0 0 0 0 
0.1081525325430002 -0.1112092408225711 0.1576419728379205 -0.1871128056803235 0.0002920514126864364 0.08334929767272539 
0 0 0 0 0 0 
0 0 0 0 0 0 
0 0 0 0 0 0 
0 0 0 0 0 0 
0 0 0 0 0 0 
0 0 0 0 0 0 
0 0 0 0 0 0 
0 0 0 0 0 0 
-0.00920236071699336 -0.09145653439343543 0.01472671454841962 0.1343803121257391 0.01057739679618608 0.1787233180564408 
0 0 0 0 0 0 
0 0 0 0 0 0 
0 0 0 0 0 0 
0 0 0 0 0 0 
0 0 0 0 0 0 
0 0 0 0 0 0 
0 0 0 0 0 0 
0 0 0 0 0 0 
0.1973599702219144 -0.193512402172692 0.007802880624100982 -0.01248655204008442 -0.1465010272003625 0.07209469333162 
0 0 0 0 0 0 
0 0 0 0 0 0 
0 0 0 0 0 0 
0 0 0 0 0 0 
0 0 0 0 0 0 
0 0 0 0 0 0 
0 0 0 0 0 0 
0 0 0 0 0 0 
0.0586031472429339 -0.09497443873136241 -0.02836850069995421 -0.06406045371224763 -0.04649236549543104 0.08252619483374118 
0 0 0 0 0 0 
0 0 0 0 0 0 
0 0 0 0 0 0 
0 0 0 0 0 0 
0 0 0 0 0 0 
0 0 0 0 0 0 
0 0 0 0 0 0 
0 0 0 0 0 0 
0.319324013178333 0.03740199935996544 -0.06096645120305429 -0.03565395832614383 -0.1533394880966941 -0.04378246704444506 
0 0 0 0 0 0 
0 0 0 0 0 0 
0 0 0 0 0 0 
0 0 0 0 0 0 
0 0 0 0 0 0 
0 0 0 0 0 0 
0 0 0 0 0 0 
0 0 0 0 0 0 
0.1236157015765505 -0.06111622005489178 0.009754154901627825 -0.05551174536440832 -0.1066559357601104 0.06765762536596392 
0 0 0 0 0 0 
0 0 0 0 0 0 
0 0 0 0 0 0 
0 0 0 0 0 0 
0 0 0 0 0 0 
0 0 0 0 0 0 
0 0 0 0 0 0 
0 0 0 0 0 0 
0.05081115431919971 -0.06070473445172663 0.07173836134239914 -0.06734703835613114 0.01659744363474826 0.04717472649174131 
0 0 0 0 0 0 
0 0 0 0 0 0 
0 0 0 0 0 0 
0 0 0 0 0 0 
0 0 0 0 0 0 
0 0 0 0 0 0 
0 0 0 0 0 0 
0 0 0 0 0 0 
0.02847145101579759 -0.05688829117802301 -0.03555909498974473 -0.08688915926229908 0.1715673386818424 0.03327305430311973 
0 0 0 0 0 0 
0 0 0 0 0 0 
0 0 0 0 0 0 
0 0 0 0 0 0 
0 0 0 0 0 0 
0 0 0 0 0 0 
0 0 0 0 0 0 
0 0 0 0 0 0 
0.1683454600552463 0.01536755432000776 0.09161338471877552 -0.1844573183230442 0.05523301497909335 0.02370544113597489 
0 0 0 0 0 0 
0 0 0 0 0 0 
0 0 0 0 0 0 
0 0 0 0 0 0 
0 0 0 0 0 0 
0 0 0 0 0 0 
0 0 0 0 0 0 
0 0 0 0 0 0 
0.0892793166228472 -0.1070681770085742 0.008157283865623054 -0.07267273495076464 0.1058544319174641 0.01844355839558512 
0 0 0 0 0 0 
0 0 0 0 0 0 
0 0 0 0 0 0 
0 0 0 0 0 0 
0 0 0 0 0 0 
0 0 0 0 0 0 
0 0 0 0 0 0 
0 0 0 0 0 0 
0.1742313249411809 -0.08268114958251693 0.06514417297875078 -0.1095491349134827 0.05667881145150289 0.03181648874191807 
0 0 0 0 0 0 
0 0 0 0 0 0 
0 0 0 0 0 0 
0 0 0 0 0 0 
0 0 0 0 0 0 
0 0 0 0 0 0 
0 0 0 0 0 0 
0 0 0 0 0 0 
0.2777300692004885 -0.003950029506414312 0.0341139060012737 -0.1007675998196536 -0.002215775091251085 -0.02571460536711226 
0 0 0 0 0 0 
0 0 0 0 0 0 
0 0 0 0 0 0 
0 0 0 0 0 0 
0 0 0 0 0 0 
0 0 0 0 0 0 
0 0 0 0 0 0 
0 0 0 0 0 0 
0.1668289330756708 -0.03466379134265546 0.03716837992693536 -0.07455987724728071 -0.1594124862867949 -0.004609751708628027 
0 0 0 0 0 0 
0 0 0 0 0 0 
0 0 0 0 0 0 
0 0 0 0 0 0 
0 0 0 0 0 0 
0 0 0 0 0 0 
0 0 0 0 0 0 
0 0 0 0 0 0 
0.1128475420223971 -0.1789125101607344 0.03147573024983065 -0.03815247307626558 -0.01387802696198565 0.1298206691360206 
-0.1264882732623259 0.05429115512688761 -0.007120258690831018 0.08195358195151942 -0.006320284383414187 -0.05720473918840408 
-0.1030353695190509 0.03570390924768967 0.01105007205708971 0.1069945069538493 -0.02789934240104407 -0.0370447923919924 
-0.03619570876580008 0.05854946383506006 0.01839191514447347 0.1146759012380876 -0.03931507213326969 -0.1251404998485152 
-0.01774985816611609 0.02930215908664578 0.03082644975981728 -0.09014730549514362 0.02296341958127672 -0.0492203810794903 
0.002956611488177103 0.0462568299186093 0.03237234745908122 -0.04916400679701538 -0.01472638349624618 -0.05501283587752822 
0.08073985232217337 0.09021148441288117 0.02611325736064249 -0.04317410249623739 -0.03264653437565362 -0.1357861693442158 
-0.04937816748598257 -0.0194254802506927 -0.02307657743391175 -0.0420095586543025 0.001881728214657017 0.07533796455632653 
-0.04840229110055246 0.01043410671754864 -0.01483774062407579 -0.01696482939709271 -0.02369716919582622 0.08553133082964434 
0.01332792678320211 0.05227813526310261 -0.005968770488842578 0.0120346554379909 -0.03021601301813942 -0.02110154732966494 
-0.04454730237969173 -0.04185287978917099 -0.129229250659277 -0.03375985976453774 -0.01515909092420479 0.1837000370716019 
-0.06916845392771311 -0.01115630280875937 -0.1111562315291372 -0.02207039960955387 -0.01033669389829493 0.1997006631156719 
0.02016253603764552 0.04269313259422999 -0.08495693110557932 -0.002991550057750357 0.001139869038111273 0.03020845148185917 
-0.04357580353008119 -0.02924684943510752 -0.1229788357433578 0.001590245305659518 -0.0511021961890462 0.1363623389936437 
-0.1024505546511788 0.02878974445131012 -0.1104432487284535 0.01393458646600072 -0.04670661744847115 0.1618413278656731 
0.01795792792843423 0.08996731284385361 -0.08770956687918222 0.007650760829867652 -0.04105268061971781 -0.009245152573068851 
-0.01630301184881352 0.06796651304758859 -0.08717226741119856 -0.03343133981349977 -0.02030207698819268 0.02088987117024308 
-0.02648810682838876 0.09385244549040825 -0.07012967576060444 -0.01992028718117408 -0.03215155628384024 0.04418424665972816 
0.09373751393388356 0.1452693715304722 -0.04735509970295203 -0.02614289816524485 -0.05454161264443454 -0.1002155084796847 
-0.06449199447703216 0.007044708100158604 0.01547129372856034 -0.06281326546565683 0.007612190912458894 -0.01942088768527413 
-0.0437811302376761 0.03053668291755595 0.02133080136502252 -0.03727866517768634 -0.01133121487217652 0.001229577011527337 
0.05347897714283621 0.06679324882718529 0.01331015666614866 -0.03663533958811229 -0.04059904931574821 -0.08842259056920387 
-0.1482753332386303 -0.03956710676630293 0.02051353970007225 -0.01708723629432906 0.002111712990508365 0.03288120487158025 
-0.1318047229042377 -0.01582648415223124 0.04085325684531312 0.00621257939463725 -0.02584552203483837 0.0515236950034639 
-0.02328824156857057 0.00785207625998904 0.008395619694954304 0.004913775289077222 -0.03982389227572637 -0.03420279515876695 
-0.02754020588185953 0.064626570764948 0.006820097918057335 -0.0506247505966381 -0.04396665109524073 -0.05853242722305001 
0.01048848510298083 -0.002045181862939317 0.002926773035374487 -0.005650068325002453 -0.06024410846471987 0.01133038578693351 
0.0519021440241891 8.467763009476562e-05 0.01874407118880607 0.02346849753196259 -0.06471759188187318 -0.07489488902507695 
0.005224374294104502 -0.1064529652886517 0.03149530141281293 -0.1402471057100756 0.05589542896781181 0.03229297733674214 
-0.009687463576610432 -0.1550031478767855 0.03690023799755428 -0.108348372625215 0.02833870371154089 0.1573391085496283 
0.06392252473121741 -0.09283522772231774 0.043564942226917 -0.1028113159127596 0.03333435886439466 -0.008605305143447622 
-0.1089099494606498 -0.1617833226910851 0.1178896808492608 0.0177472677149419 0.06251558781768497 0.07307715169745871 
-0.1703958967659361 -0.1101816305761575 0.06761621140408679 0.04148998077461663 0.04481777580945451 0.1716158783951739 
-0.08299683895445974 -0.02247281972647989 0.06281193612814324 0.06565732471931793 0.08837945067781933 -0.02358562828895779 
0.09537488058041826 -0.2091130138529175 -0.05829135146275722 0.1045284223392912 0.003888304123292896 0.1697892730553626 
-0.01365094582557952 -0.2118512198666272 -0.04178456890111393 0.113776975541506 0.02617802271023194 0.2705370768821521 
0.08169540386128092 -0.1258434800161821 -0.01448820509733601 0.1388700002975255 0.1344473917343439 -0.01031735979680452 
0.03028145611103338 -0.1442168387761083 -0.08926687025284132 0.003753055084058117 -0.0535458634305627 0.179362819965838 
-0.1096234703727987 -0.135568774286195 -0.07422409179671063 0.0239521190895872 -0.0238501296634919 0.2693376923748187 
-0.003343660485653922 -0.03230464608582036 -0.03578091785664728 0.03280913381455838 0.07602088965543471 -0.02174454200814887 
-0.03591471281602341 -0.1819323497568184 0.0006703930278108376 -0.003341970130843227 -0.02043181834357913 0.2312087543096604 
-0.09384453669007881 -0.1540634510904273 -0.007215640072093852 0.0178666225420468 -0.01136283109572255 0.3294210980917948 
0.04554540260649918 -0.03435507564599818 0.006628747358605885 0.03079233546136688 0.0127599237079485 0.0550761420004398 
-0.07010599302117045 -0.07332958005661694 0.1005965067669459 -0.08125153244689355 0.08860820497420514 0.05938314941725842 
-0.1125098958637729 -0.05436557931838994 0.1284175486005469 -0.07131863691029662 0.06570581109256883 0.1838571089745993 
-0.0117995720360102 0.03999374516475964 0.07274989613498913 -0.01491836686950235 0.05491955967925788 -0.03137890353236809 
-0.01893232696221652 -0.04325144423798057 0.03900878737069359 -0.05981375285632405 -0.06293651908765016 0.04622064394984301 
-0.0250616599577094 -0.06410139372505302 0.09853540879947842 -0.06816011225650746 -0.08871065119018891 0.1437685351518567 
0.07691867372896277 -0.01475686058462475 0.05754204477646029 -0.0354663039622278 -0.09519433462112097 -0.0128469969690611 
0.08848003082368749 0.02144767191768108 0.01107167330415576 -0.02529370405379335 -0.01294681281527557 -0.08851958433373674 
0.1218672369121558 -0.03630018032379599 0.00328437716619015 -0.00481822451902715 -0.01734127765660527 -0.01957150092894939 
0.1187463493152636 -0.005863717096243487 0.02246146716325367 0.01491073870288292 -0.02182143525091166 -0.0912815628688585 
0.08069501635531337 0.0153071654375867 0.03970914121192663 -0.08999789739307648 -0.01477162460206229 -0.127727770558132 
0.04569341263512405 -0.05038292850002931 0.03722543537315685 -0.08195915689177879 -0.01775686014645218 0.07218420288605168 
0.06386264296848761 0.05653624365267716 0.06320312654725814 -0.07708210144881564 -0.008006226069477922 -0.1008877696239523 
0.08074050884178048 -0.004337327394007906 0.007468720303533525 -0.1795320303164913 -0.006175366862131372 0.09373492206114056 
0.0175977836193292 0.03871353748685167 -0.0347309635206758 -0.1828936320491749 0.005669716332524976 0.1878347250245202 
0.1335445911966318 0.118562089967448 -0.02823563629560287 -0.2103489471433998 0.05511284303792593 -0.003298935486441125 
0.04577572661869778 -0.1960866153139623 0.1074250886258748 -0.02005851627051561 0.04180079382264467 -0.05615946336295417 
-0.02191381118944006 -0.09541304486746868 0.04843365248621355 0.02485153653911441 0.05706484695662922 -0.07078697476542299 
0.06018420725560308 -0.03138645779510537 0.04369200887848381 0.04499871598566147 0.1431204598463752 -0.2709185565968911 
0.1384537499912237 -0.05890950335568696 -0.007145741730187898 -0.1148743743437495 0.06273513740557607 -0.1884430821749461 
0.05939870497320968 0.02688517032698529 -0.01001798572845949 -0.06742526283901092 0.08478476721779298 -0.1936736876194197 
0.07782048059232628 0.1089898116192636 -0.0142800005132085 -0.01893846247174292 0.1647911113909298 -0.3831655051439157 
0.04976020501248382 -0.05850674746227203 0.1336217988310635 -0.2071271681054195 -0.01432247864712657 -0.001930559309580122 
-0.04098132949010287 0.03483411528100135 0.1159635274506921 -0.182212930188654 6.597448912745519e-05 0.02003671131579634 
0.01830827475718858 0.1301134896606868 0.05088484265486409 -0.1156903150178299 0.0247078650795771 -0.1321958469535889 
0.2042468661382735 0.0151259601631182 -0.04709279050495137 -0.2119148533894818 -0.00423127642294283 -0.08646396866829516 
0.1186805331120424 -0.004151271311749514 0.02109692837949801 -0.2262095746999847 -0.00692822172174387 0.0748300988396209 
0.15182702292102 0.09645724770518463 -0.01345557112732179 -0.1411106028986705 0.002737673337856792 -0.119886658265677 
0.009591299340798047 0.0224559896813397 0.006030284223237922 -0.06703033400166876 -0.04297370465766394 -0.05913559223787695 
-0.01971183678310678 -0.01144450247183817 0.03805908583793544 -0.05802568388889235 -0.04861567234054039 0.09826059320270757 
0.015645423929116 0.04164854967363346 0.05940809615653739 -0.04621711856272643 -0.04992590527052501 -0.02938849658696615 
0.0671657492760145 0.06307756286345331 -0.03498939700612291 0.03506319314802959 -0.03806365868384854 -0.08270490357171489 
0.1290920348516306 0.0231901744741181 -0.04609450380599393 0.03152564513790312 -0.03559052140262573 -0.05220983003250913 
0.124156573946172 0.04801125390326787 -0.0302607758267403 0.0474135562357211 -0.03254343109128867 -0.1216150054886652 
-0.03937436428875955 0.1136088392251314 -0.02135111724811197 0.01898011721543478 -0.01230582714513332 0.02682636259524628 
-0.03856180651241322 0.1278608938204817 -0.04434497261099656 0.008538679847235277 -0.008069299931266377 0.0840892725846394 
0.005572221031292945 0.2194066516720979 -0.02238619154653844 0.002339239179832573 0.01281929169683788 -0.08380506113926051 
-0.2194763965400097 0.1255254829111703 -0.03427395471523834 -0.1977717255799655 -0.02746822652366861 0.2355585774503377 
-0.2487907088838597 0.1822564757851391 -0.04217670390370909 -0.2030475165351415 -3.590477274175322e-05 0.2291873966333779 
-0.1861283008336006 0.2866234318017604 -0.01414744451643269 -0.2004451427592712 0.05090360215246157 0.03661835665611149 
0.02730736190216366 0.03568961102573198 0.09816370314633929 -0.006018760697365715 -0.0455919236482563 -0.1006121858904238 
-0.01434822079224641 0.08031376351420806 0.03813561255774604 0.06308878918675143 -0.02394351991395386 -0.08720628279211229 
-0.0436969779815357 0.1757467626216554 0.01269938572530712 0.1264958023414637 0.06417568667146074 -0.2714755729307521 
0.01803700235110049 -0.1259144487997062 0.1297710064561716 0.06414891796658388 0.0192881918591305 -0.1101435384577747 
-0.08633680396736076 -0.03373081704595066 0.09815494279892745 0.1188639839009461 0.03931994850485278 -0.133271032300716 
-0.1300257084526719 0.07797427152691402 -0.01017577107537251 0.2248419128872426 0.1296330442927563 -0.3196537376765234 
-0.1586570592487106 0.0720374578190098 -0.04572987715654574 -0.1403753795261923 -0.08049395347438068 0.2167409198943887 
-0.2243829944850253 0.1372365306239832 -0.009758726501442045 -0.1366324292278384 -0.06700157019840766 0.2007016408893764 
-0.1961527885140393 0.2361850804715123 -0.06377643347869882 -0.07677072904959155 -0.02131805501787568 0.04355837131148728 
-0.01404618622927178 0.00529217929672109 -0.0724921713681729 -0.05536094251814934 -0.0506143660538863 0.03820184817424664 
-0.08411717054187194 0.05036836693725456 -0.04184608238240344 -0.04084688549162039 -0.04517034678456548 0.06304653901613641 
-0.0623542796111308 0.1462324185447483 -0.01421128012781254 -0.01444410272548516 -0.02151761397106591 -0.1180980433126559 
-0.1396210625665916 0.002361541929097985 -0.04359491906714705 0.1390552815519471 -0.01018404813667419 0.02955902282335137 
-0.1505080498577168 0.0004317228471344739 -0.01274413416214586 0.1360384443839068 -0.005972739695102877 0.09479890104461665 
-0.1012173261398759 0.07122673541974295 0.01596892671547951 0.1059310538597621 0.001717547374530498 -0.05907134503075492 
-0.01415402635394752 -0.1325321351021521 -0.02402553254313151 0.0590496757773576 -0.03803453342037973 0.07725896581429947 
0.05735754009599489 -0.1483607071028216 -0.009344990438925276 0.04566898203793791 -0.03752509189024195 0.06733265390624837 
0.0630039306155452 -0.1130398769770019 0.01134204757979059 0.05685233541132139 -0.03154384154756448 -0.02181434371479722 
0.03665583100594138 -0.04830937603467619 -0.00905678718971923 -0.0265913661776067 -0.06689266309562286 0.1270632414286338 
0.01385991028433805 -0.04306340839354946 -0.01459604286397518 0.003116332259543706 -0.05555185730904865 0.1214539879969667 
-0.02473798283462569 0.004505781243056904 0.004731477282589136 0.05259852796126684 -0.03996892767378906 0.03379057336286984 
0.05986712315559805 -0.1539568518471868 -0.02826332989788264 0.06904729480345592 -0.01025514173577208 -0.01595668711383313 
0.04994724135489526 -0.1155937185775033 -0.04041637661922546 0.1013135230033856 0.02389277871748951 -0.06672986825148408 
0.01004305381738084 -0.03147807466431623 -0.04302143261940487 0.1866710057755345 0.0601739888412511 -0.1915239703197948 
0.1746828169318899 -0.3883906183588351 0.001619929998384253 0.1003380326943899 0.1250225939505835 0.01406286560244246 
0.1572462461992558 -0.3667898876144291 0.04129675595272742 0.1174402559978446 0.1525372749707758 -0.03369672447173357 
0.1180105066073686 -0.2876910531050531 -0.02392495822575775 0.2344504023904409 0.2227831687277364 -0.2087912339886134 
0.3055767263479627 -0.3368701618825312 0.02282756781486802 0.04812752080721786 0.09669976130925134 -0.04190093135651279 
0.2408379707140366 -0.3080689555399312 0.08883840352145417 0.07156215830445602 0.1208591394732357 -0.09470497002076309 
0.1450123104224874 -0.2459032755889093 0.02989079563301384 0.1685001264131472 0.2041013366508966 -0.2283923469846452 
0.06680559170461674 -0.1869385454708902 -0.08366406844271289 0.1666183520171844 -0.09797982308217294 0.06518297004488637 
-0.0008947374064449984 -0.1309183340346251 -0.06279621168401693 0.2226893225301764 -0.0918950886020483 0.01202714981124111 
-0.05367184962381333 -0.06198133229922865 -0.07823838854491123 0.3060832461076419 -0.04315698995194543 -0.09478839773996268 
0.139009489177215 -0.02861587027505914 -0.043184237326559 -0.05419599348588416 -0.0747806744436607 0.05524675669637638 
0.08530531030087088 0.008251842097274247 -0.02604984871150171 -0.0132108386197349 -0.05923111913879029 0.03209250223135236 
0.07874494498329555 0.07901346355689498 0.001173417120295559 0.02620383705176884 -0.03834695638917568 -0.0808569149365272 
-0.008142708234030705 -0.09136442811280422 -0.01628610807384607 -0.04127967393030635 -0.002130495474689778 0.06778014560689941 
-0.0299897766657115 -0.07906085857111431 0.01201928593454919 -0.02296012378493151 0.003702150994433647 0.07832430401296192 
-0.06095821641273109 -0.01443351926719841 0.04066282557107784 0.01164624268887273 0.01034536402851614 -0.03461764073797979 
-0.07108380357594148 -0.08935474475505797 0.01137483125231783 0.06376287809134822 -0.0555369942548713 0.1014835687863331 
-0.02072019341882716 -0.1025654998023783 0.03928304442895822 0.05777170983974699 -0.05311581998147882 0.06658606682307701 
-0.01091366148481995 -0.08020708627751919 0.0634508627795972 0.07147931493626138 -0.04563178802965968 -0.01700101298815915 
0.02836530201219367 -0.101983147782881 0.02153426039322593 0.0248282971958539 -0.132458836306103 0.05092917594219411 
0.05356167599831335 -0.08961071260643336 0.02732298850585464 0.03979810301301571 -0.1267782208271889 -0.0009200888286039813 
0.05026493438649266 -0.03602059931947217 0.03804757838243544 0.07826772485286704 -0.1072694721571377 -0.1001440671813913 
0.02628075872996491 -0.188003794731802 -0.06211433605277371 0.1574159110932692 -0.1038286005304656 0.1075380241461914 
0.03608518777891458 -0.1573371065230179 -0.02846236374996963 0.1750437451205255 -0.09223268357466936 0.03829571960520173 
0.04512112917655071 -0.08074057404780287 -0.06743620301488232 0.2874825302012156 -0.05863845022757538 -0.1253692552314351 
0.01513940926138294 -0.2364589517226708 0.003811933837847258 -0.06141777320215259 0.03421996252843805 0.09978537849226321 
0.02302091895861256 -0.1583757794199598 -0.01051225559370697 -0.06033861647898305 0.06543485696506586 0.02299269050487162 
0.03001646852870475 -0.1006255637081708 -0.02680179043259812 0.007118591699132389 0.1271044741324617 -0.1410741149723497 
0.01225554937857136 -0.1917987784867068 0.01123373764298933 -0.02368961279476932 0.0181002702479436 0.1386512150909025 
-0.05141731283608289 -0.1163926048757648 -0.02205351517009298 0.02620086241388408 0.05295598352410541 0.09061582589697093 
-0.1084866629965447 -0.05150126517079828 -0.01248618725353884 0.1085372051195193 0.117917648725276 -0.05283732141895553 
0.03453015158956709 -0.1557357625611435 -0.03057576018411072 0.07697328521711529 -0.1345670912284593 0.1695138420884223 
-0.008900682918501709 -0.1206146781816631 0.003989126276325488 0.1263478738770885 -0.1239077918936263 0.1119972478794524 
-0.04164038061128815 -0.05166239704140872 0.009036558863093782 0.2060743458661071 -0.08208149034294139 -0.01898022546924633 
0.04237319463634549 -0.045503046596227 0.004563838419317918 0.01898035407988869 -0.1159358148909022 0.05043764679748301 
0.06865479157745033 -0.0124040287756155 0.02848224213484471 0.02900725781783376 -0.1113231052212072 -0.01902335217704697 
0.1148254590241699 0.05636881370643122 0.04158993053410821 0.05362137740769642 -0.0912188400321684 -0.1609325151663368 
0.04595432917231922 -0.1463772156260127 0.003296334326310022 0.06560384413044298 -0.1009484146000789 0.06414243973051784 
0.03846578730481924 -0.130300506828024 0.03199124794507146 0.08035668000211067 -0.0955809564630101 0.02554649502754211 
0.02347011730101455 -0.07890141302898969 0.05415627616519457 0.1104892109591674 -0.08569714332615493 -0.0843528621879885 
-0.1063426130200938 -0.03879845382201737 0.05120019788403223 -0.03927118915384498 0.02867587458554576 0.06574062973114227 
-0.09267014759083589 -0.04519111676271038 0.07923979768528895 -0.03440668853226728 0.03277789604049639 0.03392031452384282 
-0.08820886772844093 -0.01256159711803287 0.1012013893455829 -0.02986888444311613 0.05103183368954135 -0.06453586218679376 
0.04367414102143048 -0.1072242645479037 0.01589598037270168 -0.02898035375900337 0.07278112175731651 0.1060957844694232 
0.06679511707662505 -0.0927389975649678 0.03125228314899775 -0.02001142991686329 0.08111658091073978 0.04721950678755049 
0.08689348005438693 -0.01317833490612866 0.05356533530286792 -0.002615970505591589 0.1085491207286122 -0.1418751486779605 
-0.1432837249541849 0.001606242652879217 -0.04406467857312736 -0.07421499665095253 0.06451242390510808 0.2401689547464248 
-0.1220883203766041 0.02959755155481168 -0.01180505230457937 -0.06913978322050113 0.09315177277945721 0.1592302259592344 
-0.1004271013590163 0.1162215060005388 0.004998021197128039 -0.01515149088165557 0.1441589891830356 -0.06649238484609597 
-0.2523295682047228 -0.01019657194076129 0.05636583035424124 -0.04884913829687431 0.1400382640804725 0.1723923911392543 
-0.2546941633871193 0.05026393282328765 0.03336889547318622 -0.03819610385543544 0.1737301282665574 0.1000081726066573 
-0.2254551484494883 0.1118961141409411 0.04486961262123695 0.005839064212229726 0.232572679464285 -0.09729035295517031 
-0.2114265918095889 0.06528921889579171 0.01943961796958805 -0.0489572377542724 0.1264688235603783 0.09694568258935674 
-0.2064177393459197 0.1236631518101416 -0.01046143410115209 -0.03647216852273114 0.1621368330892864 0.03427508074704324 
-0.1738414627759077 0.1949132331130834 0.01301014214521437 0.0007184616837821961 0.2186422666170805 -0.1682348649067632 
0.03002544292383407 -0.02711612399457998 -0.01987029212550113 -0.1950099671556452 0.06063729545445892 0.1756024584212421 
0.03611667799922458 -0.008855791875929662 -0.02310040243559154 -0.1615098459778356 0.08468617726215942 0.1058244657637882 
0.05643368390659293 0.07414800985836176 -0.001261905047659491 -0.1065410637907988 0.1303250705665187 -0.0997126718358331 
0.01020653540851001 -0.1028965315600411 0.0130317749881382 -0.1043659885353444 0.09904536998733177 0.1454050697580626 
0.02557938272468125 -0.07547411676077133 0.01968425976520378 -0.07585084634960856 0.1077240336608038 0.06556010865087572 
0.04576895817422623 0.01196871479646766 0.03145473606083831 -0.03380993331873251 0.1398781497387542 -0.1384164674731895 
-0.116340915505211 -0.04310685139292446 0.004458247934093336 0.06936565785734448 -0.001835434126377403 0.1117737196525103 
-0.1012290442448286 -0.03253210909579273 0.04161581115747475 0.07175744039008165 0.003273121033349992 0.06704937660040612 
-0.02078134061945478 0.01982688794997261 0.0632462784213068 0.05244848675101148 0.02594007664932322 -0.09556933746178151 
0.01550530260326577 0.005093051367658439 0.02503724719371188 -0.04495013788338213 -0.0323754316602614 0.08668917564107885 
0.04795542196594046 0.00568271284142511 0.03836244990009624 -0.04304710726940604 -0.02724821048056381 0.04056518139196764 
0.04354761021006532 0.04111251153130735 0.05213035207057427 -0.02371810461515484 -0.01242553296718537 -0.06778909721951029 
0.1400381639470956 0.01930203883984607 -0.0127794477071428 -0.09404972945589281 -0.008284979484980524 0.02143999091196901 
0.1846731849184837 0.02816046589627572 0.005280070454300397 -0.09860169004605554 0.001281558742823126 -0.04678260965056712 
0.2138888797867274 0.08538944963789273 0.02863891805156581 -0.07914605078512112 0.02471683787760268 -0.2107542823659474 
0.09327458036302623 0.04156929599381248 -0.060104076096073 -0.07594105525268831 -0.03112255695274775 0.05147757515583667 
0.1762887084794224 0.04799108656497582 -0.04401271315284846 -0.09604714108788635 -0.01266324523666833 -0.02177891345055549 
0.2277345334094592 0.1161337949811851 -0.02244965405996353 -0.07028466563271135 0.02166275775468317 -0.2191484904134093 
-0.03661357369067869 0.1537840860654296 -0.09512791311810237 0.02477679792938393 -0.01906327858793568 -0.03710694140117141 
0.04307283857547097 0.1616768949260597 -0.08185294267484587 0.00542396757605724 -0.002162755338821167 -0.09723097305162985 
0.104608538332361 0.2093491908451986 -0.0617747038313671 0.03017444919932505 0.03736985425163802 -0.2841598300784563 
-0.03804782638529427 0.168199329250435 -0.0933911428443842 0.05579268754610723 0.006061786982088659 -0.07368567453496792 
0.04177644745188583 0.1771554170079237 -0.0790306417669079 0.04329006880276657 0.02349287549859146 -0.1416779392402983 
0.1237178787821759 0.2126081038792852 -0.0547170930170028 0.06113545315358483 0.05720172694623415 -0.3272053285304775 
0.1296575864446693 0.1156545056973509 -0.07207693214195164 -0.1174534687641562 -0.04661976082122454 0.01635929383914084 
0.2061240618187012 0.1196078511297546 -0.04985059786686838 -0.1346921105750379 -0.03285412534380776 -0.04425454340301981 
0.2622779054975066 0.1817500444336745 -0.02063195568645541 -0.1113170379724592 -0.00156196885643021 -0.2397782440261255 
0.09480537881873903 -0.01467630415374181 -0.001713564845422594 -0.09630126420417348 -0.002206230899229305 0.04565789000358551 
0.1545165039128054 -0.00494599928113037 0.01860827227813558 -0.1038234682062948 0.01001315256118916 -0.02499459885090072 
0.204321737323621 0.06534070098185042 0.0472232983267672 -0.08582262520747387 0.03504830690865696 -0.2198260160513648 
-0.003167426990724423 -0.04114362623997302 0.001950819936373031 -0.002111919164212929 -0.03405298710509687 0.07055373055837277 
0.0153109962816561 -0.03649912663749214 0.03012582104769347 -0.0006288354346834023 -0.02639087194515467 0.02658426006812421 
0.07112318551942329 0.009372125013019164 0.05795341939674187 0.002663388926025672 -0.01184041727141905 -0.1355048454704117 
